<?xml version="1.0"?>
<opencv_storage>
<cascade>
  <stageType>BOOST</stageType>
  <featureType>HAAR</featureType>
  <height>24</height>
  <width>24</width>
  <stageParams>
    <boostType>GAB</boostType>
    <minHitRate>9.9500000476837158e-01</minHitRate>
    <maxFalseAlarm>5.0000000000000000e-01</maxFalseAlarm>
    <weightTrimRate>9.4999998807907104e-01</weightTrimRate>
    <maxDepth>1</maxDepth>
    <maxWeakCount>100</maxWeakCount></stageParams>
  <featureParams>
    <maxCatCount>0</maxCatCount>
    <featSize>1</featSize>
    <mode>BASIC</mode></featureParams>
  <stageNum>3</stageNum>
  <stages>
    <!-- stage 0 -->
    <_>
      <maxWeakCount>1</maxWeakCount>
      <stageThreshold>1.</stageThreshold>
      <weakClassifiers>
        <_>
          <internalNodes>
            0 -1 0 -1.2057341635227203e-01</internalNodes>
          <leafValues>
            1. -1.</leafValues></_></weakClassifiers></_>
    <!-- stage 1 -->
    <_>
      <maxWeakCount>3</maxWeakCount>
      <stageThreshold>-1.1872960329055786e+00</stageThreshold>
      <weakClassifiers>
        <_>
          <internalNodes>
            0 -1 2 -5.7120816782116890e-03</internalNodes>
          <leafValues>
            9.8969072103500366e-01 -9.7233200073242188e-01</leafValues></_>
        <_>
          <internalNodes>
            0 -1 1 2.5653291493654251e-02</internalNodes>
          <leafValues>
            -9.7231751680374146e-01 9.3322938680648804e-01</leafValues></_>
        <_>
          <internalNodes>
            0 -1 5 -5.2920915186405182e-02</internalNodes>
          <leafValues>
            7.5735348463058472e-01 -9.9205034971237183e-01</leafValues></_></weakClassifiers></_>
    <!-- stage 2 -->
    <_>
      <maxWeakCount>3</maxWeakCount>
      <stageThreshold>-1.0880585908889771e+00</stageThreshold>
      <weakClassifiers>
        <_>
          <internalNodes>
            0 -1 3 8.8636949658393860e-03</internalNodes>
          <leafValues>
            -9.8799997568130493e-01 9.7000002861022949e-01</leafValues></_>
        <_>
          <internalNodes>
            0 -1 4 1.3166932389140129e-02</internalNodes>
          <leafValues>
            -9.0748250484466553e-01 9.1205459833145142e-01</leafValues></_>
        <_>
          <internalNodes>
            0 -1 6 -3.8528013974428177e-02</internalNodes>
          <leafValues>
            8.0742388963699341e-01 -9.9616986513137817e-01</leafValues></_></weakClassifiers></_></stages>
  <features>
    <_>
      <rects>
        <_>
          1 16 9 6 -1.</_>
        <_>
          4 16 3 6 3.</_></rects>
      <tilted>0</tilted></_>
    <_>
      <rects>
        <_>
          4 0 2 22 -1.</_>
        <_>
          4 0 1 11 2.</_>
        <_>
          5 11 1 11 2.</_></rects>
      <tilted>0</tilted></_>
    <_>
      <rects>
        <_>
          4 3 2 1 -1.</_>
        <_>
          5 3 1 1 2.</_></rects>
      <tilted>0</tilted></_>
    <_>
      <rects>
        <_>
          7 0 2 2 -1.</_>
        <_>
          8 0 1 2 2.</_></rects>
      <tilted>0</tilted></_>
    <_>
      <rects>
        <_>
          7 0 2 3 -1.</_>
        <_>
          8 0 1 3 2.</_></rects>
      <tilted>0</tilted></_>
    <_>
      <rects>
        <_>
          9 16 9 8 -1.</_>
        <_>
          9 20 9 4 2.</_></rects>
      <tilted>0</tilted></_>
    <_>
      <rects>
        <_>
          14 6 8 10 -1.</_>
        <_>
          18 6 4 10 2.</_></rects>
      <tilted>0</tilted></_></features></cascade>
</opencv_storage>
